digraph Tree {
node [shape=box, style="filled, rounded", color="black", fontname=helvetica] ;
edge [fontname=helvetica] ;
0 [label="X[2] <= 50051.7\ngini = 0.49\nsamples = 402\nvalue = [228, 174]", fillcolor="#f9e1d0"] ;
1 [label="X[4] <= 1.5\ngini = 0.48\nsamples = 369\nvalue = [224, 145]", fillcolor="#f6d3b9"] ;
0 -> 1 [labeldistance=2.5, labelangle=45, headlabel="True"] ;
2 [label="X[4] <= 0.5\ngini = 0.5\nsamples = 246\nvalue = [131, 115]", fillcolor="#fcf0e7"] ;
1 -> 2 ;
3 [label="X[3] <= 0.5\ngini = 0.43\nsamples = 168\nvalue = [115, 53]", fillcolor="#f1bb94"] ;
2 -> 3 ;
4 [label="X[8] <= 0.5\ngini = 0.47\nsamples = 43\nvalue = [16, 27]", fillcolor="#aed7f4"] ;
3 -> 4 ;
5 [label="X[0] <= 36.5\ngini = 0.14\nsamples = 26\nvalue = [2, 24]", fillcolor="#49a5e7"] ;
4 -> 5 ;
6 [label="gini = 0.0\nsamples = 12\nvalue = [0, 12]", fillcolor="#399de5"] ;
5 -> 6 ;
7 [label="gini = 0.24\nsamples = 14\nvalue = [2, 12]", fillcolor="#5aade9"] ;
5 -> 7 ;
8 [label="X[6] <= 0.5\ngini = 0.29\nsamples = 17\nvalue = [14, 3]", fillcolor="#eb9c63"] ;
4 -> 8 ;
9 [label="gini = 0.0\nsamples = 3\nvalue = [0, 3]", fillcolor="#399de5"] ;
8 -> 9 ;
10 [label="gini = 0.0\nsamples = 14\nvalue = [14, 0]", fillcolor="#e58139"] ;
8 -> 10 ;
11 [label="X[6] <= 0.5\ngini = 0.33\nsamples = 125\nvalue = [99, 26]", fillcolor="#eca26d"] ;
3 -> 11 ;
12 [label="X[8] <= 0.5\ngini = 0.48\nsamples = 50\nvalue = [30, 20]", fillcolor="#f6d5bd"] ;
11 -> 12 ;
13 [label="gini = 0.22\nsamples = 31\nvalue = [27, 4]", fillcolor="#e99456"] ;
12 -> 13 ;
14 [label="gini = 0.27\nsamples = 19\nvalue = [3, 16]", fillcolor="#5eafea"] ;
12 -> 14 ;
15 [label="X[0] <= 31.5\ngini = 0.15\nsamples = 75\nvalue = [69, 6]", fillcolor="#e78c4a"] ;
11 -> 15 ;
16 [label="gini = 0.29\nsamples = 17\nvalue = [14, 3]", fillcolor="#eb9c63"] ;
15 -> 16 ;
17 [label="gini = 0.1\nsamples = 58\nvalue = [55, 3]", fillcolor="#e68844"] ;
15 -> 17 ;
18 [label="X[2] <= 15155.85\ngini = 0.33\nsamples = 78\nvalue = [16, 62]", fillcolor="#6cb6ec"] ;
2 -> 18 ;
19 [label="X[2] <= 12854.35\ngini = 0.14\nsamples = 13\nvalue = [12, 1]", fillcolor="#e78c49"] ;
18 -> 19 ;
20 [label="gini = 0.0\nsamples = 9\nvalue = [9, 0]", fillcolor="#e58139"] ;
19 -> 20 ;
21 [label="X[6] <= 0.5\ngini = 0.38\nsamples = 4\nvalue = [3, 1]", fillcolor="#eeab7b"] ;
19 -> 21 ;
22 [label="gini = 0.0\nsamples = 1\nvalue = [0, 1]", fillcolor="#399de5"] ;
21 -> 22 ;
23 [label="gini = 0.0\nsamples = 3\nvalue = [3, 0]", fillcolor="#e58139"] ;
21 -> 23 ;
24 [label="X[0] <= 54.5\ngini = 0.12\nsamples = 65\nvalue = [4, 61]", fillcolor="#46a3e7"] ;
18 -> 24 ;
25 [label="X[2] <= 17274.65\ngini = 0.04\nsamples = 49\nvalue = [1, 48]", fillcolor="#3d9fe6"] ;
24 -> 25 ;
26 [label="gini = 0.22\nsamples = 8\nvalue = [1, 7]", fillcolor="#55abe9"] ;
25 -> 26 ;
27 [label="gini = 0.0\nsamples = 41\nvalue = [0, 41]", fillcolor="#399de5"] ;
25 -> 27 ;
28 [label="X[11] <= 0.5\ngini = 0.3\nsamples = 16\nvalue = [3, 13]", fillcolor="#67b4eb"] ;
24 -> 28 ;
29 [label="gini = 0.14\nsamples = 13\nvalue = [1, 12]", fillcolor="#49a5e7"] ;
28 -> 29 ;
30 [label="gini = 0.44\nsamples = 3\nvalue = [2, 1]", fillcolor="#f2c09c"] ;
28 -> 30 ;
31 [label="X[2] <= 33107.05\ngini = 0.37\nsamples = 123\nvalue = [93, 30]", fillcolor="#edaa79"] ;
1 -> 31 ;
32 [label="X[2] <= 30442.3\ngini = 0.2\nsamples = 97\nvalue = [86, 11]", fillcolor="#e89152"] ;
31 -> 32 ;
33 [label="X[2] <= 13939.55\ngini = 0.16\nsamples = 89\nvalue = [81, 8]", fillcolor="#e88d4d"] ;
32 -> 33 ;
34 [label="X[2] <= 12746.9\ngini = 0.35\nsamples = 22\nvalue = [17, 5]", fillcolor="#eda673"] ;
33 -> 34 ;
35 [label="gini = 0.2\nsamples = 18\nvalue = [16, 2]", fillcolor="#e89152"] ;
34 -> 35 ;
36 [label="gini = 0.38\nsamples = 4\nvalue = [1, 3]", fillcolor="#7bbeee"] ;
34 -> 36 ;
37 [label="X[2] <= 20392.35\ngini = 0.09\nsamples = 67\nvalue = [64, 3]", fillcolor="#e68742"] ;
33 -> 37 ;
38 [label="gini = 0.0\nsamples = 30\nvalue = [30, 0]", fillcolor="#e58139"] ;
37 -> 38 ;
39 [label="gini = 0.15\nsamples = 37\nvalue = [34, 3]", fillcolor="#e78c4a"] ;
37 -> 39 ;
40 [label="X[4] <= 2.5\ngini = 0.47\nsamples = 8\nvalue = [5, 3]", fillcolor="#f5cdb0"] ;
32 -> 40 ;
41 [label="X[2] <= 32383.95\ngini = 0.38\nsamples = 4\nvalue = [1, 3]", fillcolor="#7bbeee"] ;
40 -> 41 ;
42 [label="gini = 0.0\nsamples = 3\nvalue = [0, 3]", fillcolor="#399de5"] ;
41 -> 42 ;
43 [label="gini = 0.0\nsamples = 1\nvalue = [1, 0]", fillcolor="#e58139"] ;
41 -> 43 ;
44 [label="gini = 0.0\nsamples = 4\nvalue = [4, 0]", fillcolor="#e58139"] ;
40 -> 44 ;
45 [label="X[4] <= 2.5\ngini = 0.39\nsamples = 26\nvalue = [7, 19]", fillcolor="#82c1ef"] ;
31 -> 45 ;
46 [label="X[0] <= 46.0\ngini = 0.12\nsamples = 16\nvalue = [1, 15]", fillcolor="#46a4e7"] ;
45 -> 46 ;
47 [label="X[3] <= 0.5\ngini = 0.44\nsamples = 3\nvalue = [1, 2]", fillcolor="#9ccef2"] ;
46 -> 47 ;
48 [label="gini = 0.0\nsamples = 2\nvalue = [0, 2]", fillcolor="#399de5"] ;
47 -> 48 ;
49 [label="gini = 0.0\nsamples = 1\nvalue = [1, 0]", fillcolor="#e58139"] ;
47 -> 49 ;
50 [label="gini = 0.0\nsamples = 13\nvalue = [0, 13]", fillcolor="#399de5"] ;
46 -> 50 ;
51 [label="X[2] <= 43247.1\ngini = 0.48\nsamples = 10\nvalue = [6, 4]", fillcolor="#f6d5bd"] ;
45 -> 51 ;
52 [label="gini = 0.0\nsamples = 6\nvalue = [6, 0]", fillcolor="#e58139"] ;
51 -> 52 ;
53 [label="gini = 0.0\nsamples = 4\nvalue = [0, 4]", fillcolor="#399de5"] ;
51 -> 53 ;
54 [label="X[4] <= 0.5\ngini = 0.21\nsamples = 33\nvalue = [4, 29]", fillcolor="#54abe9"] ;
0 -> 54 [labeldistance=2.5, labelangle=-45, headlabel="False"] ;
55 [label="X[3] <= 0.5\ngini = 0.5\nsamples = 8\nvalue = [4, 4]", fillcolor="#ffffff"] ;
54 -> 55 ;
56 [label="gini = 0.0\nsamples = 4\nvalue = [0, 4]", fillcolor="#399de5"] ;
55 -> 56 ;
57 [label="gini = 0.0\nsamples = 4\nvalue = [4, 0]", fillcolor="#e58139"] ;
55 -> 57 ;
58 [label="gini = 0.0\nsamples = 25\nvalue = [0, 25]", fillcolor="#399de5"] ;
54 -> 58 ;
}